digraph Tree {
node [shape=box, style="filled, rounded", color="black", fontname="helvetica"] ;
edge [fontname="helvetica"] ;
0 [label="3 <= -27.52\ngini = 0.84\nsamples = 92\nvalue = [12, 13, 17, 32, 16, 28, 29]\nclass = little finger", fillcolor="#fafefe"] ;
1 [label="3 <= -47.39\ngini = 0.68\nsamples = 39\nvalue = [0, 4, 4, 0, 7, 26, 24]\nclass = fist", fillcolor="#fbf5fe"] ;
0 -> 1 [labeldistance=2.5, labelangle=45, headlabel="True"] ;
2 [label="gini = 0.0\nsamples = 7\nvalue = [0, 0, 0, 0, 0, 0, 14]\nclass = rest", fillcolor="#e53986"] ;
1 -> 2 ;
3 [label="1 <= -14.91\ngini = 0.67\nsamples = 32\nvalue = [0, 4, 4, 0, 7, 26, 10]\nclass = fist", fillcolor="#e1b2f5"] ;
1 -> 3 ;
4 [label="0 <= -40.67\ngini = 0.7\nsamples = 15\nvalue = [0, 0, 4, 0, 5, 4, 10]\nclass = rest", fillcolor="#f8c8dd"] ;
3 -> 4 ;
5 [label="3 <= -34.6\ngini = 0.44\nsamples = 4\nvalue = [0, 0, 4, 0, 0, 2, 0]\nclass = thumb", fillcolor="#9cf2a6"] ;
4 -> 5 ;
6 [label="gini = 0.0\nsamples = 3\nvalue = [0, 0, 4, 0, 0, 0, 0]\nclass = thumb", fillcolor="#39e54d"] ;
5 -> 6 ;
7 [label="gini = 0.0\nsamples = 1\nvalue = [0, 0, 0, 0, 0, 2, 0]\nclass = fist", fillcolor="#b139e5"] ;
5 -> 7 ;
8 [label="2 <= -47.12\ngini = 0.55\nsamples = 11\nvalue = [0, 0, 0, 0, 5, 2, 10]\nclass = rest", fillcolor="#f4accd"] ;
4 -> 8 ;
9 [label="gini = 0.5\nsamples = 4\nvalue = [0, 0, 0, 0, 4, 1, 1]\nclass = stretch", fillcolor="#889aef"] ;
8 -> 9 ;
10 [label="gini = 0.31\nsamples = 7\nvalue = [0, 0, 0, 0, 1, 1, 9]\nclass = rest", fillcolor="#ea619e"] ;
8 -> 10 ;
11 [label="2 <= -16.69\ngini = 0.36\nsamples = 17\nvalue = [0, 4, 0, 0, 2, 22, 0]\nclass = fist", fillcolor="#c46bec"] ;
3 -> 11 ;
12 [label="3 <= -28.64\ngini = 0.15\nsamples = 14\nvalue = [0, 0, 0, 0, 2, 22, 0]\nclass = fist", fillcolor="#b84be7"] ;
11 -> 12 ;
13 [label="gini = 0.0\nsamples = 12\nvalue = [0, 0, 0, 0, 0, 19, 0]\nclass = fist", fillcolor="#b139e5"] ;
12 -> 13 ;
14 [label="gini = 0.48\nsamples = 2\nvalue = [0, 0, 0, 0, 2, 3, 0]\nclass = fist", fillcolor="#e5bdf6"] ;
12 -> 14 ;
15 [label="gini = 0.0\nsamples = 3\nvalue = [0, 4, 0, 0, 0, 0, 0]\nclass = up", fillcolor="#b7e539"] ;
11 -> 15 ;
16 [label="2 <= -5.59\ngini = 0.77\nsamples = 53\nvalue = [12, 9, 13, 32, 9, 2, 5]\nclass = little finger", fillcolor="#c8f8f7"] ;
0 -> 16 [labeldistance=2.5, labelangle=-45, headlabel="False"] ;
17 [label="0 <= 4.6\ngini = 0.69\nsamples = 36\nvalue = [7, 0, 8, 30, 9, 1, 5]\nclass = little finger", fillcolor="#adf4f3"] ;
16 -> 17 ;
18 [label="3 <= -8.58\ngini = 0.76\nsamples = 20\nvalue = [7, 0, 8, 0, 8, 1, 5]\nclass = thumb", fillcolor="#ffffff"] ;
17 -> 18 ;
19 [label="0 <= -8.38\ngini = 0.66\nsamples = 14\nvalue = [0, 0, 8, 0, 8, 1, 3]\nclass = thumb", fillcolor="#ffffff"] ;
18 -> 19 ;
20 [label="gini = 0.6\nsamples = 8\nvalue = [0, 0, 8, 0, 2, 1, 3]\nclass = thumb", fillcolor="#a5f3ae"] ;
19 -> 20 ;
21 [label="gini = 0.0\nsamples = 6\nvalue = [0, 0, 0, 0, 6, 0, 0]\nclass = stretch", fillcolor="#3956e5"] ;
19 -> 21 ;
22 [label="0 <= -4.31\ngini = 0.35\nsamples = 6\nvalue = [7, 0, 0, 0, 0, 0, 2]\nclass = down", fillcolor="#eca572"] ;
18 -> 22 ;
23 [label="gini = 0.0\nsamples = 5\nvalue = [7, 0, 0, 0, 0, 0, 0]\nclass = down", fillcolor="#e58139"] ;
22 -> 23 ;
24 [label="gini = 0.0\nsamples = 1\nvalue = [0, 0, 0, 0, 0, 0, 2]\nclass = rest", fillcolor="#e53986"] ;
22 -> 24 ;
25 [label="2 <= -12.68\ngini = 0.06\nsamples = 16\nvalue = [0, 0, 0, 30, 1, 0, 0]\nclass = little finger", fillcolor="#40e6e3"] ;
17 -> 25 ;
26 [label="gini = 0.0\nsamples = 14\nvalue = [0, 0, 0, 28, 0, 0, 0]\nclass = little finger", fillcolor="#39e5e2"] ;
25 -> 26 ;
27 [label="1 <= 15.31\ngini = 0.44\nsamples = 2\nvalue = [0, 0, 0, 2, 1, 0, 0]\nclass = little finger", fillcolor="#9cf2f0"] ;
25 -> 27 ;
28 [label="gini = 0.0\nsamples = 1\nvalue = [0, 0, 0, 0, 1, 0, 0]\nclass = stretch", fillcolor="#3956e5"] ;
27 -> 28 ;
29 [label="gini = 0.0\nsamples = 1\nvalue = [0, 0, 0, 2, 0, 0, 0]\nclass = little finger", fillcolor="#39e5e2"] ;
27 -> 29 ;
30 [label="1 <= 10.46\ngini = 0.72\nsamples = 17\nvalue = [5, 9, 5, 2, 0, 1, 0]\nclass = up", fillcolor="#eef9d0"] ;
16 -> 30 ;
31 [label="gini = 0.0\nsamples = 3\nvalue = [0, 0, 5, 0, 0, 0, 0]\nclass = thumb", fillcolor="#39e54d"] ;
30 -> 31 ;
32 [label="3 <= 9.69\ngini = 0.62\nsamples = 14\nvalue = [5, 9, 0, 2, 0, 1, 0]\nclass = up", fillcolor="#e7f6bd"] ;
30 -> 32 ;
33 [label="gini = 0.0\nsamples = 6\nvalue = [0, 8, 0, 0, 0, 0, 0]\nclass = up", fillcolor="#b7e539"] ;
32 -> 33 ;
34 [label="1 <= 94.25\ngini = 0.62\nsamples = 8\nvalue = [5, 1, 0, 2, 0, 1, 0]\nclass = down", fillcolor="#f4c9aa"] ;
32 -> 34 ;
35 [label="gini = 0.28\nsamples = 6\nvalue = [5, 0, 0, 0, 0, 1, 0]\nclass = down", fillcolor="#ea9a61"] ;
34 -> 35 ;
36 [label="gini = 0.44\nsamples = 2\nvalue = [0, 1, 0, 2, 0, 0, 0]\nclass = little finger", fillcolor="#9cf2f0"] ;
34 -> 36 ;
}